digraph Tree {
node [shape=box] ;
0 [label="X[1] <= 2014.5\nentropy = 1.0\nsamples = 288000\nvalue = [144000, 144000]"] ;
1 [label="entropy = 0.0\nsamples = 74880\nvalue = [0, 74880]"] ;
0 -> 1 [labeldistance=2.5, labelangle=45, headlabel="True"] ;
2 [label="X[0] <= -83.95\nentropy = 0.909\nsamples = 213120\nvalue = [144000, 69120]"] ;
0 -> 2 [labeldistance=2.5, labelangle=-45, headlabel="False"] ;
3 [label="X[0] <= -85.95\nentropy = 0.962\nsamples = 176158\nvalue = [108242, 67916]"] ;
2 -> 3 ;
4 [label="X[0] <= -86.45\nentropy = 0.289\nsamples = 39605\nvalue = [37605, 2000]"] ;
3 -> 4 ;
5 [label="X[0] <= -86.75\nentropy = 0.045\nsamples = 23761\nvalue = [23644, 117]"] ;
4 -> 5 ;
6 [label="X[0] <= -86.95\nentropy = 0.008\nsamples = 17369\nvalue = [17358, 11]"] ;
5 -> 6 ;
7 [label="entropy = 0.0\nsamples = 13825\nvalue = [13825, 0]"] ;
6 -> 7 ;
8 [label="X[1] <= 2019.5\nentropy = 0.03\nsamples = 3544\nvalue = [3533, 11]"] ;
6 -> 8 ;
9 [label="X[0] <= -86.85\nentropy = 0.019\nsamples = 3420\nvalue = [3414, 6]"] ;
8 -> 9 ;
10 [label="X[1] <= 2017.5\nentropy = 0.029\nsamples = 1672\nvalue = [1667, 5]"] ;
9 -> 10 ;
11 [label="X[1] <= 2016.5\nentropy = 0.023\nsamples = 903\nvalue = [901, 2]"] ;
10 -> 11 ;
12 [label="X[1] <= 2015.5\nentropy = 0.029\nsamples = 691\nvalue = [689, 2]"] ;
11 -> 12 ;
13 [label="entropy = 0.043\nsamples = 212\nvalue = [211, 1]"] ;
12 -> 13 ;
14 [label="entropy = 0.022\nsamples = 479\nvalue = [478, 1]"] ;
12 -> 14 ;
15 [label="entropy = 0.0\nsamples = 212\nvalue = [212, 0]"] ;
11 -> 15 ;
16 [label="X[1] <= 2018.5\nentropy = 0.037\nsamples = 769\nvalue = [766, 3]"] ;
10 -> 16 ;
17 [label="entropy = 0.049\nsamples = 361\nvalue = [359, 2]"] ;
16 -> 17 ;
18 [label="entropy = 0.025\nsamples = 408\nvalue = [407, 1]"] ;
16 -> 18 ;
19 [label="X[1] <= 2018.5\nentropy = 0.007\nsamples = 1748\nvalue = [1747, 1]"] ;
9 -> 19 ;
20 [label="entropy = 0.0\nsamples = 1300\nvalue = [1300, 0]"] ;
19 -> 20 ;
21 [label="entropy = 0.023\nsamples = 448\nvalue = [447, 1]"] ;
19 -> 21 ;
22 [label="X[1] <= 2020.5\nentropy = 0.244\nsamples = 124\nvalue = [119, 5]"] ;
8 -> 22 ;
23 [label="X[0] <= -86.85\nentropy = 0.207\nsamples = 123\nvalue = [119, 4]"] ;
22 -> 23 ;
24 [label="entropy = 0.362\nsamples = 58\nvalue = [54, 4]"] ;
23 -> 24 ;
25 [label="entropy = 0.0\nsamples = 65\nvalue = [65, 0]"] ;
23 -> 25 ;
26 [label="entropy = 0.0\nsamples = 1\nvalue = [0, 1]"] ;
22 -> 26 ;
27 [label="X[1] <= 2020.5\nentropy = 0.122\nsamples = 6392\nvalue = [6286, 106]"] ;
5 -> 27 ;
28 [label="X[0] <= -86.55\nentropy = 0.117\nsamples = 6387\nvalue = [6286, 101]"] ;
27 -> 28 ;
29 [label="X[1] <= 2017.5\nentropy = 0.083\nsamples = 4155\nvalue = [4112, 43]"] ;
28 -> 29 ;
30 [label="X[1] <= 2016.5\nentropy = 0.063\nsamples = 2157\nvalue = [2141, 16]"] ;
29 -> 30 ;
31 [label="X[0] <= -86.65\nentropy = 0.078\nsamples = 1662\nvalue = [1646, 16]"] ;
30 -> 31 ;
32 [label="X[1] <= 2015.5\nentropy = 0.055\nsamples = 802\nvalue = [797, 5]"] ;
31 -> 32 ;
33 [label="entropy = 0.068\nsamples = 245\nvalue = [243, 2]"] ;
32 -> 33 ;
34 [label="entropy = 0.048\nsamples = 557\nvalue = [554, 3]"] ;
32 -> 34 ;
35 [label="X[1] <= 2015.5\nentropy = 0.099\nsamples = 860\nvalue = [849, 11]"] ;
31 -> 35 ;
36 [label="entropy = 0.118\nsamples = 251\nvalue = [247, 4]"] ;
35 -> 36 ;
37 [label="entropy = 0.091\nsamples = 609\nvalue = [602, 7]"] ;
35 -> 37 ;
38 [label="entropy = 0.0\nsamples = 495\nvalue = [495, 0]"] ;
30 -> 38 ;
39 [label="X[1] <= 2018.5\nentropy = 0.103\nsamples = 1998\nvalue = [1971, 27]"] ;
29 -> 39 ;
40 [label="X[0] <= -86.65\nentropy = 0.133\nsamples = 865\nvalue = [849, 16]"] ;
39 -> 40 ;
41 [label="entropy = 0.114\nsamples = 393\nvalue = [387, 6]"] ;
40 -> 41 ;
42 [label="entropy = 0.148\nsamples = 472\nvalue = [462, 10]"] ;
40 -> 42 ;
43 [label="X[1] <= 2019.5\nentropy = 0.079\nsamples = 1133\nvalue = [1122, 11]"] ;
39 -> 43 ;
44 [label="X[0] <= -86.65\nentropy = 0.069\nsamples = 977\nvalue = [969, 8]"] ;
43 -> 44 ;
45 [label="entropy = 0.055\nsamples = 474\nvalue = [471, 3]"] ;
44 -> 45 ;
46 [label="entropy = 0.08\nsamples = 503\nvalue = [498, 5]"] ;
44 -> 46 ;
47 [label="X[0] <= -86.65\nentropy = 0.137\nsamples = 156\nvalue = [153, 3]"] ;
43 -> 47 ;
48 [label="entropy = 0.106\nsamples = 72\nvalue = [71, 1]"] ;
47 -> 48 ;
49 [label="entropy = 0.162\nsamples = 84\nvalue = [82, 2]"] ;
47 -> 49 ;
50 [label="X[1] <= 2015.5\nentropy = 0.174\nsamples = 2232\nvalue = [2174, 58]"] ;
28 -> 50 ;
51 [label="entropy = 0.315\nsamples = 281\nvalue = [265, 16]"] ;
50 -> 51 ;
52 [label="X[1] <= 2019.5\nentropy = 0.15\nsamples = 1951\nvalue = [1909, 42]"] ;
50 -> 52 ;
53 [label="X[1] <= 2017.5\nentropy = 0.135\nsamples = 1855\nvalue = [1820, 35]"] ;
52 -> 53 ;
54 [label="X[1] <= 2016.5\nentropy = 0.115\nsamples = 907\nvalue = [893, 14]"] ;
53 -> 54 ;
55 [label="entropy = 0.155\nsamples = 621\nvalue = [607, 14]"] ;
54 -> 55 ;
56 [label="entropy = 0.0\nsamples = 286\nvalue = [286, 0]"] ;
54 -> 56 ;
57 [label="X[1] <= 2018.5\nentropy = 0.153\nsamples = 948\nvalue = [927, 21]"] ;
53 -> 57 ;
58 [label="entropy = 0.154\nsamples = 405\nvalue = [396, 9]"] ;
57 -> 58 ;
59 [label="entropy = 0.153\nsamples = 543\nvalue = [531, 12]"] ;
57 -> 59 ;
60 [label="entropy = 0.377\nsamples = 96\nvalue = [89, 7]"] ;
52 -> 60 ;
61 [label="entropy = 0.0\nsamples = 5\nvalue = [0, 5]"] ;
27 -> 61 ;
62 [label="X[1] <= 2019.5\nentropy = 0.526\nsamples = 15844\nvalue = [13961, 1883]"] ;
4 -> 62 ;
63 [label="X[0] <= -86.15\nentropy = 0.452\nsamples = 14799\nvalue = [13396, 1403]"] ;
62 -> 63 ;
64 [label="X[1] <= 2015.5\nentropy = 0.322\nsamples = 7997\nvalue = [7529, 468]"] ;
63 -> 64 ;
65 [label="X[0] <= -86.25\nentropy = 0.496\nsamples = 1075\nvalue = [958, 117]"] ;
64 -> 65 ;
66 [label="X[0] <= -86.35\nentropy = 0.435\nsamples = 671\nvalue = [611, 60]"] ;
65 -> 66 ;
67 [label="entropy = 0.413\nsamples = 337\nvalue = [309, 28]"] ;
66 -> 67 ;
68 [label="entropy = 0.456\nsamples = 334\nvalue = [302, 32]"] ;
66 -> 68 ;
69 [label="entropy = 0.587\nsamples = 404\nvalue = [347, 57]"] ;
65 -> 69 ;
70 [label="X[0] <= -86.35\nentropy = 0.289\nsamples = 6922\nvalue = [6571, 351]"] ;
64 -> 70 ;
71 [label="X[1] <= 2017.5\nentropy = 0.192\nsamples = 2073\nvalue = [2012, 61]"] ;
70 -> 71 ;
72 [label="X[1] <= 2016.5\nentropy = 0.159\nsamples = 990\nvalue = [967, 23]"] ;
71 -> 72 ;
73 [label="entropy = 0.203\nsamples = 727\nvalue = [704, 23]"] ;
72 -> 73 ;
74 [label="entropy = 0.0\nsamples = 263\nvalue = [263, 0]"] ;
72 -> 74 ;
75 [label="X[1] <= 2018.5\nentropy = 0.219\nsamples = 1083\nvalue = [1045, 38]"] ;
71 -> 75 ;
76 [label="entropy = 0.223\nsamples = 501\nvalue = [483, 18]"] ;
75 -> 76 ;
77 [label="entropy = 0.216\nsamples = 582\nvalue = [562, 20]"] ;
75 -> 77 ;
78 [label="X[1] <= 2016.5\nentropy = 0.327\nsamples = 4849\nvalue = [4559, 290]"] ;
70 -> 78 ;
79 [label="X[0] <= -86.25\nentropy = 0.4\nsamples = 1676\nvalue = [1543, 133]"] ;
78 -> 79 ;
80 [label="entropy = 0.388\nsamples = 801\nvalue = [740, 61]"] ;
79 -> 80 ;
81 [label="entropy = 0.41\nsamples = 875\nvalue = [803, 72]"] ;
79 -> 81 ;
82 [label="X[1] <= 2017.5\nentropy = 0.284\nsamples = 3173\nvalue = [3016, 157]"] ;
78 -> 82 ;
83 [label="entropy = 0.0\nsamples = 649\nvalue = [649, 0]"] ;
82 -> 83 ;
84 [label="X[0] <= -86.25\nentropy = 0.336\nsamples = 2524\nvalue = [2367, 157]"] ;
82 -> 84 ;
85 [label="X[1] <= 2018.5\nentropy = 0.255\nsamples = 1214\nvalue = [1162, 52]"] ;
84 -> 85 ;
86 [label="entropy = 0.305\nsamples = 532\nvalue = [503, 29]"] ;
85 -> 86 ;
87 [label="entropy = 0.213\nsamples = 682\nvalue = [659, 23]"] ;
85 -> 87 ;
88 [label="X[1] <= 2018.5\nentropy = 0.403\nsamples = 1310\nvalue = [1205, 105]"] ;
84 -> 88 ;
89 [label="entropy = 0.465\nsamples = 618\nvalue = [557, 61]"] ;
88 -> 89 ;
90 [label="entropy = 0.342\nsamples = 692\nvalue = [648, 44]"] ;
88 -> 90 ;
91 [label="X[1] <= 2016.5\nentropy = 0.578\nsamples = 6802\nvalue = [5867, 935]"] ;
63 -> 91 ;
92 [label="X[0] <= -86.05\nentropy = 0.682\nsamples = 2955\nvalue = [2420, 535]"] ;
91 -> 92 ;
93 [label="X[1] <= 2015.5\nentropy = 0.64\nsamples = 1338\nvalue = [1121, 217]"] ;
92 -> 93 ;
94 [label="entropy = 0.718\nsamples = 439\nvalue = [352, 87]"] ;
93 -> 94 ;
95 [label="entropy = 0.596\nsamples = 899\nvalue = [769, 130]"] ;
93 -> 95 ;
96 [label="X[1] <= 2015.5\nentropy = 0.715\nsamples = 1617\nvalue = [1299, 318]"] ;
92 -> 96 ;
97 [label="entropy = 0.741\nsamples = 520\nvalue = [411, 109]"] ;
96 -> 97 ;
98 [label="entropy = 0.703\nsamples = 1097\nvalue = [888, 209]"] ;
96 -> 98 ;
99 [label="X[1] <= 2017.5\nentropy = 0.481\nsamples = 3847\nvalue = [3447, 400]"] ;
91 -> 99 ;
100 [label="entropy = 0.0\nsamples = 712\nvalue = [712, 0]"] ;
99 -> 100 ;
101 [label="X[0] <= -86.05\nentropy = 0.551\nsamples = 3135\nvalue = [2735, 400]"] ;
99 -> 101 ;
102 [label="X[1] <= 2018.5\nentropy = 0.478\nsamples = 1459\nvalue = [1309, 150]"] ;
101 -> 102 ;
103 [label="entropy = 0.477\nsamples = 672\nvalue = [603, 69]"] ;
102 -> 103 ;
104 [label="entropy = 0.478\nsamples = 787\nvalue = [706, 81]"] ;
102 -> 104 ;
105 [label="X[1] <= 2018.5\nentropy = 0.608\nsamples = 1676\nvalue = [1426, 250]"] ;
101 -> 105 ;
106 [label="entropy = 0.645\nsamples = 803\nvalue = [671, 132]"] ;
105 -> 106 ;
107 [label="entropy = 0.571\nsamples = 873\nvalue = [755, 118]"] ;
105 -> 107 ;
108 [label="X[1] <= 2020.5\nentropy = 0.995\nsamples = 1045\nvalue = [565, 480]"] ;
62 -> 108 ;
109 [label="X[0] <= -86.15\nentropy = 0.949\nsamples = 894\nvalue = [565, 329]"] ;
108 -> 109 ;
110 [label="X[0] <= -86.25\nentropy = 0.83\nsamples = 446\nvalue = [329, 117]"] ;
109 -> 110 ;
111 [label="X[0] <= -86.35\nentropy = 0.755\nsamples = 253\nvalue = [198, 55]"] ;
110 -> 111 ;
112 [label="entropy = 0.767\nsamples = 125\nvalue = [97, 28]"] ;
111 -> 112 ;
113 [label="entropy = 0.743\nsamples = 128\nvalue = [101, 27]"] ;
111 -> 113 ;
114 [label="entropy = 0.906\nsamples = 193\nvalue = [131, 62]"] ;
110 -> 114 ;
115 [label="X[0] <= -86.05\nentropy = 0.998\nsamples = 448\nvalue = [236, 212]"] ;
109 -> 115 ;
116 [label="entropy = 0.965\nsamples = 195\nvalue = [119, 76]"] ;
115 -> 116 ;
117 [label="entropy = 0.996\nsamples = 253\nvalue = [117, 136]"] ;
115 -> 117 ;
118 [label="entropy = 0.0\nsamples = 151\nvalue = [0, 151]"] ;
108 -> 118 ;
119 [label="X[1] <= 2019.5\nentropy = 0.999\nsamples = 136553\nvalue = [70637, 65916]"] ;
3 -> 119 ;
120 [label="X[0] <= -84.35\nentropy = 0.982\nsamples = 117281\nvalue = [67823, 49458]"] ;
119 -> 120 ;
121 [label="X[0] <= -85.55\nentropy = 0.992\nsamples = 100796\nvalue = [55556, 45240]"] ;
120 -> 121 ;
122 [label="X[1] <= 2016.5\nentropy = 0.88\nsamples = 18474\nvalue = [12944, 5530]"] ;
121 -> 122 ;
123 [label="X[0] <= -85.75\nentropy = 0.952\nsamples = 8517\nvalue = [5353, 3164]"] ;
122 -> 123 ;
124 [label="X[1] <= 2015.5\nentropy = 0.894\nsamples = 3632\nvalue = [2505, 1127]"] ;
123 -> 124 ;
125 [label="X[0] <= -85.85\nentropy = 0.963\nsamples = 1200\nvalue = [735, 465]"] ;
124 -> 125 ;
126 [label="entropy = 0.956\nsamples = 523\nvalue = [326, 197]"] ;
125 -> 126 ;
127 [label="entropy = 0.968\nsamples = 677\nvalue = [409, 268]"] ;
125 -> 127 ;
128 [label="X[0] <= -85.85\nentropy = 0.845\nsamples = 2432\nvalue = [1770, 662]"] ;
124 -> 128 ;
129 [label="entropy = 0.812\nsamples = 1118\nvalue = [838, 280]"] ;
128 -> 129 ;
130 [label="entropy = 0.87\nsamples = 1314\nvalue = [932, 382]"] ;
128 -> 130 ;
131 [label="X[1] <= 2015.5\nentropy = 0.98\nsamples = 4885\nvalue = [2848, 2037]"] ;
123 -> 131 ;
132 [label="X[0] <= -85.65\nentropy = 0.999\nsamples = 1642\nvalue = [844, 798]"] ;
131 -> 132 ;
133 [label="entropy = 0.999\nsamples = 749\nvalue = [389, 360]"] ;
132 -> 133 ;
134 [label="entropy = 1.0\nsamples = 893\nvalue = [455, 438]"] ;
132 -> 134 ;
135 [label="X[0] <= -85.65\nentropy = 0.959\nsamples = 3243\nvalue = [2004, 1239]"] ;
131 -> 135 ;
136 [label="entropy = 0.942\nsamples = 1485\nvalue = [952, 533]"] ;
135 -> 136 ;
137 [label="entropy = 0.972\nsamples = 1758\nvalue = [1052, 706]"] ;
135 -> 137 ;
138 [label="X[1] <= 2017.5\nentropy = 0.791\nsamples = 9957\nvalue = [7591, 2366]"] ;
122 -> 138 ;
139 [label="entropy = 0.0\nsamples = 1693\nvalue = [1693, 0]"] ;
138 -> 139 ;
140 [label="X[0] <= -85.75\nentropy = 0.864\nsamples = 8264\nvalue = [5898, 2366]"] ;
138 -> 140 ;
141 [label="X[1] <= 2018.5\nentropy = 0.778\nsamples = 3741\nvalue = [2880, 861]"] ;
140 -> 141 ;
142 [label="X[0] <= -85.85\nentropy = 0.819\nsamples = 1726\nvalue = [1286, 440]"] ;
141 -> 142 ;
143 [label="entropy = 0.785\nsamples = 803\nvalue = [615, 188]"] ;
142 -> 143 ;
144 [label="entropy = 0.846\nsamples = 923\nvalue = [671, 252]"] ;
142 -> 144 ;
145 [label="X[0] <= -85.85\nentropy = 0.739\nsamples = 2015\nvalue = [1594, 421]"] ;
141 -> 145 ;
146 [label="entropy = 0.692\nsamples = 980\nvalue = [798, 182]"] ;
145 -> 146 ;
147 [label="entropy = 0.78\nsamples = 1035\nvalue = [796, 239]"] ;
145 -> 147 ;
148 [label="X[0] <= -85.65\nentropy = 0.918\nsamples = 4523\nvalue = [3018, 1505]"] ;
140 -> 148 ;
149 [label="X[1] <= 2018.5\nentropy = 0.89\nsamples = 2171\nvalue = [1504, 667]"] ;
148 -> 149 ;
150 [label="entropy = 0.924\nsamples = 979\nvalue = [647, 332]"] ;
149 -> 150 ;
151 [label="entropy = 0.857\nsamples = 1192\nvalue = [857, 335]"] ;
149 -> 151 ;
152 [label="X[1] <= 2018.5\nentropy = 0.94\nsamples = 2352\nvalue = [1514, 838]"] ;
148 -> 152 ;
153 [label="entropy = 0.952\nsamples = 1071\nvalue = [673, 398]"] ;
152 -> 153 ;
154 [label="entropy = 0.928\nsamples = 1281\nvalue = [841, 440]"] ;
152 -> 154 ;
155 [label="X[1] <= 2016.5\nentropy = 0.999\nsamples = 82322\nvalue = [42612, 39710]"] ;
121 -> 155 ;
156 [label="X[1] <= 2015.5\nentropy = 0.992\nsamples = 39764\nvalue = [17838, 21926]"] ;
155 -> 156 ;
157 [label="X[0] <= -84.65\nentropy = 0.958\nsamples = 14147\nvalue = [5381, 8766]"] ;
156 -> 157 ;
158 [label="X[0] <= -85.35\nentropy = 0.946\nsamples = 11140\nvalue = [4061, 7079]"] ;
157 -> 158 ;
159 [label="X[0] <= -85.45\nentropy = 0.978\nsamples = 2122\nvalue = [875, 1247]"] ;
158 -> 159 ;
160 [label="entropy = 0.987\nsamples = 995\nvalue = [430, 565]"] ;
159 -> 160 ;
161 [label="entropy = 0.968\nsamples = 1127\nvalue = [445, 682]"] ;
159 -> 161 ;
162 [label="X[0] <= -85.25\nentropy = 0.937\nsamples = 9018\nvalue = [3186, 5832]"] ;
158 -> 162 ;
163 [label="entropy = 0.953\nsamples = 1176\nvalue = [438, 738]"] ;
162 -> 163 ;
164 [label="X[0] <= -84.75\nentropy = 0.934\nsamples = 7842\nvalue = [2748, 5094]"] ;
162 -> 164 ;
165 [label="X[0] <= -85.05\nentropy = 0.932\nsamples = 6668\nvalue = [2317, 4351]"] ;
164 -> 165 ;
166 [label="X[0] <= -85.15\nentropy = 0.937\nsamples = 2613\nvalue = [923, 1690]"] ;
165 -> 166 ;
167 [label="entropy = 0.936\nsamples = 1311\nvalue = [461, 850]"] ;
166 -> 167 ;
168 [label="entropy = 0.938\nsamples = 1302\nvalue = [462, 840]"] ;
166 -> 168 ;
169 [label="X[0] <= -84.85\nentropy = 0.928\nsamples = 4055\nvalue = [1394, 2661]"] ;
165 -> 169 ;
170 [label="X[0] <= -84.95\nentropy = 0.928\nsamples = 2760\nvalue = [948, 1812]"] ;
169 -> 170 ;
171 [label="entropy = 0.928\nsamples = 1365\nvalue = [469, 896]"] ;
170 -> 171 ;
172 [label="entropy = 0.928\nsamples = 1395\nvalue = [479, 916]"] ;
170 -> 172 ;
173 [label="entropy = 0.929\nsamples = 1295\nvalue = [446, 849]"] ;
169 -> 173 ;
174 [label="entropy = 0.948\nsamples = 1174\nvalue = [431, 743]"] ;
164 -> 174 ;
175 [label="X[0] <= -84.45\nentropy = 0.989\nsamples = 3007\nvalue = [1320, 1687]"] ;
157 -> 175 ;
176 [label="X[0] <= -84.55\nentropy = 0.982\nsamples = 2097\nvalue = [882, 1215]"] ;
175 -> 176 ;
177 [label="entropy = 0.98\nsamples = 1096\nvalue = [456, 640]"] ;
176 -> 177 ;
178 [label="entropy = 0.984\nsamples = 1001\nvalue = [426, 575]"] ;
176 -> 178 ;
179 [label="entropy = 0.999\nsamples = 910\nvalue = [438, 472]"] ;
175 -> 179 ;
180 [label="X[0] <= -84.55\nentropy = 0.999\nsamples = 25617\nvalue = [12457, 13160]"] ;
156 -> 180 ;
181 [label="X[0] <= -85.35\nentropy = 0.998\nsamples = 22157\nvalue = [10504, 11653]"] ;
180 -> 181 ;
182 [label="X[0] <= -85.45\nentropy = 0.996\nsamples = 3897\nvalue = [2099, 1798]"] ;
181 -> 182 ;
183 [label="entropy = 0.991\nsamples = 1866\nvalue = [1039, 827]"] ;
182 -> 183 ;
184 [label="entropy = 0.999\nsamples = 2031\nvalue = [1060, 971]"] ;
182 -> 184 ;
185 [label="X[0] <= -84.65\nentropy = 0.995\nsamples = 18260\nvalue = [8405, 9855]"] ;
181 -> 185 ;
186 [label="X[0] <= -85.25\nentropy = 0.994\nsamples = 16192\nvalue = [7365, 8827]"] ;
185 -> 186 ;
187 [label="entropy = 0.999\nsamples = 2127\nvalue = [1032, 1095]"] ;
186 -> 187 ;
188 [label="X[0] <= -84.85\nentropy = 0.993\nsamples = 14065\nvalue = [6333, 7732]"] ;
186 -> 188 ;
189 [label="X[0] <= -85.05\nentropy = 0.991\nsamples = 9495\nvalue = [4211, 5284]"] ;
188 -> 189 ;
190 [label="X[0] <= -85.15\nentropy = 0.992\nsamples = 4689\nvalue = [2104, 2585]"] ;
189 -> 190 ;
191 [label="entropy = 0.991\nsamples = 2300\nvalue = [1023, 1277]"] ;
190 -> 191 ;
192 [label="entropy = 0.993\nsamples = 2389\nvalue = [1081, 1308]"] ;
190 -> 192 ;
193 [label="X[0] <= -84.95\nentropy = 0.989\nsamples = 4806\nvalue = [2107, 2699]"] ;
189 -> 193 ;
194 [label="entropy = 0.988\nsamples = 2444\nvalue = [1065, 1379]"] ;
193 -> 194 ;
195 [label="entropy = 0.99\nsamples = 2362\nvalue = [1042, 1320]"] ;
193 -> 195 ;
196 [label="X[0] <= -84.75\nentropy = 0.996\nsamples = 4570\nvalue = [2122, 2448]"] ;
188 -> 196 ;
197 [label="entropy = 0.996\nsamples = 2281\nvalue = [1055, 1226]"] ;
196 -> 197 ;
198 [label="entropy = 0.997\nsamples = 2289\nvalue = [1067, 1222]"] ;
196 -> 198 ;
199 [label="entropy = 1.0\nsamples = 2068\nvalue = [1040, 1028]"] ;
185 -> 199 ;
200 [label="X[0] <= -84.45\nentropy = 0.988\nsamples = 3460\nvalue = [1953, 1507]"] ;
180 -> 200 ;
201 [label="entropy = 0.989\nsamples = 1861\nvalue = [1046, 815]"] ;
200 -> 201 ;
202 [label="entropy = 0.987\nsamples = 1599\nvalue = [907, 692]"] ;
200 -> 202 ;
203 [label="X[1] <= 2017.5\nentropy = 0.98\nsamples = 42558\nvalue = [24774, 17784]"] ;
155 -> 203 ;
204 [label="entropy = 0.0\nsamples = 5386\nvalue = [5386, 0]"] ;
203 -> 204 ;
205 [label="X[0] <= -84.55\nentropy = 0.999\nsamples = 37172\nvalue = [19388, 17784]"] ;
203 -> 205 ;
206 [label="X[0] <= -85.35\nentropy = 1.0\nsamples = 32086\nvalue = [16220, 15866]"] ;
205 -> 206 ;
207 [label="X[1] <= 2018.5\nentropy = 0.987\nsamples = 5633\nvalue = [3196, 2437]"] ;
206 -> 207 ;
208 [label="X[0] <= -85.45\nentropy = 0.997\nsamples = 2631\nvalue = [1407, 1224]"] ;
207 -> 208 ;
209 [label="entropy = 0.989\nsamples = 1256\nvalue = [706, 550]"] ;
208 -> 209 ;
210 [label="entropy = 1.0\nsamples = 1375\nvalue = [701, 674]"] ;
208 -> 210 ;
211 [label="X[0] <= -85.45\nentropy = 0.973\nsamples = 3002\nvalue = [1789, 1213]"] ;
207 -> 211 ;
212 [label="entropy = 0.961\nsamples = 1465\nvalue = [901, 564]"] ;
211 -> 212 ;
213 [label="entropy = 0.982\nsamples = 1537\nvalue = [888, 649]"] ;
211 -> 213 ;
214 [label="X[1] <= 2018.5\nentropy = 1.0\nsamples = 26453\nvalue = [13024, 13429]"] ;
206 -> 214 ;
215 [label="X[0] <= -84.65\nentropy = 0.997\nsamples = 12652\nvalue = [5911, 6741]"] ;
214 -> 215 ;
216 [label="X[0] <= -85.25\nentropy = 0.995\nsamples = 11298\nvalue = [5187, 6111]"] ;
215 -> 216 ;
217 [label="entropy = 1.0\nsamples = 1468\nvalue = [720, 748]"] ;
216 -> 217 ;
218 [label="X[0] <= -84.75\nentropy = 0.994\nsamples = 9830\nvalue = [4467, 5363]"] ;
216 -> 218 ;
219 [label="X[0] <= -85.05\nentropy = 0.992\nsamples = 8264\nvalue = [3709, 4555]"] ;
218 -> 219 ;
220 [label="X[0] <= -85.15\nentropy = 0.996\nsamples = 3172\nvalue = [1468, 1704]"] ;
219 -> 220 ;
221 [label="entropy = 0.996\nsamples = 1542\nvalue = [715, 827]"] ;
220 -> 221 ;
222 [label="entropy = 0.996\nsamples = 1630\nvalue = [753, 877]"] ;
220 -> 222 ;
223 [label="X[0] <= -84.95\nentropy = 0.99\nsamples = 5092\nvalue = [2241, 2851]"] ;
219 -> 223 ;
224 [label="entropy = 0.986\nsamples = 1696\nvalue = [731, 965]"] ;
223 -> 224 ;
225 [label="X[0] <= -84.85\nentropy = 0.991\nsamples = 3396\nvalue = [1510, 1886]"] ;
223 -> 225 ;
226 [label="entropy = 0.993\nsamples = 1731\nvalue = [778, 953]"] ;
225 -> 226 ;
227 [label="entropy = 0.989\nsamples = 1665\nvalue = [732, 933]"] ;
225 -> 227 ;
228 [label="entropy = 0.999\nsamples = 1566\nvalue = [758, 808]"] ;
218 -> 228 ;
229 [label="entropy = 0.997\nsamples = 1354\nvalue = [724, 630]"] ;
215 -> 229 ;
230 [label="X[0] <= -84.75\nentropy = 0.999\nsamples = 13801\nvalue = [7113, 6688]"] ;
214 -> 230 ;
231 [label="X[0] <= -85.15\nentropy = 1.0\nsamples = 10633\nvalue = [5404, 5229]"] ;
230 -> 231 ;
232 [label="X[0] <= -85.25\nentropy = 0.997\nsamples = 3446\nvalue = [1831, 1615]"] ;
231 -> 232 ;
233 [label="entropy = 0.997\nsamples = 1621\nvalue = [861, 760]"] ;
232 -> 233 ;
234 [label="entropy = 0.997\nsamples = 1825\nvalue = [970, 855]"] ;
232 -> 234 ;
235 [label="X[0] <= -84.85\nentropy = 1.0\nsamples = 7187\nvalue = [3573, 3614]"] ;
231 -> 235 ;
236 [label="X[0] <= -85.05\nentropy = 1.0\nsamples = 5419\nvalue = [2662, 2757]"] ;
235 -> 236 ;
237 [label="entropy = 1.0\nsamples = 1790\nvalue = [890, 900]"] ;
236 -> 237 ;
238 [label="X[0] <= -84.95\nentropy = 1.0\nsamples = 3629\nvalue = [1772, 1857]"] ;
236 -> 238 ;
239 [label="entropy = 1.0\nsamples = 1793\nvalue = [879, 914]"] ;
238 -> 239 ;
240 [label="entropy = 0.999\nsamples = 1836\nvalue = [893, 943]"] ;
238 -> 240 ;
241 [label="entropy = 0.999\nsamples = 1768\nvalue = [911, 857]"] ;
235 -> 241 ;
242 [label="X[0] <= -84.65\nentropy = 0.996\nsamples = 3168\nvalue = [1709, 1459]"] ;
230 -> 242 ;
243 [label="entropy = 0.998\nsamples = 1633\nvalue = [863, 770]"] ;
242 -> 243 ;
244 [label="entropy = 0.992\nsamples = 1535\nvalue = [846, 689]"] ;
242 -> 244 ;
245 [label="X[0] <= -84.45\nentropy = 0.956\nsamples = 5086\nvalue = [3168, 1918]"] ;
205 -> 245 ;
246 [label="X[1] <= 2018.5\nentropy = 0.972\nsamples = 2632\nvalue = [1576, 1056]"] ;
245 -> 246 ;
247 [label="entropy = 0.981\nsamples = 1244\nvalue = [722, 522]"] ;
246 -> 247 ;
248 [label="entropy = 0.961\nsamples = 1388\nvalue = [854, 534]"] ;
246 -> 248 ;
249 [label="X[1] <= 2018.5\nentropy = 0.935\nsamples = 2454\nvalue = [1592, 862]"] ;
245 -> 249 ;
250 [label="entropy = 0.942\nsamples = 1163\nvalue = [745, 418]"] ;
249 -> 250 ;
251 [label="entropy = 0.929\nsamples = 1291\nvalue = [847, 444]"] ;
249 -> 251 ;
252 [label="X[0] <= -84.15\nentropy = 0.82\nsamples = 16485\nvalue = [12267, 4218]"] ;
120 -> 252 ;
253 [label="X[1] <= 2016.5\nentropy = 0.89\nsamples = 9152\nvalue = [6336, 2816]"] ;
252 -> 253 ;
254 [label="X[1] <= 2015.5\nentropy = 0.955\nsamples = 4201\nvalue = [2623, 1578]"] ;
253 -> 254 ;
255 [label="X[0] <= -84.25\nentropy = 0.992\nsamples = 1436\nvalue = [794, 642]"] ;
254 -> 255 ;
256 [label="entropy = 0.998\nsamples = 797\nvalue = [419, 378]"] ;
255 -> 256 ;
257 [label="entropy = 0.978\nsamples = 639\nvalue = [375, 264]"] ;
255 -> 257 ;
258 [label="X[0] <= -84.25\nentropy = 0.923\nsamples = 2765\nvalue = [1829, 936]"] ;
254 -> 258 ;
259 [label="entropy = 0.938\nsamples = 1479\nvalue = [955, 524]"] ;
258 -> 259 ;
260 [label="entropy = 0.905\nsamples = 1286\nvalue = [874, 412]"] ;
258 -> 260 ;
261 [label="X[1] <= 2017.5\nentropy = 0.811\nsamples = 4951\nvalue = [3713, 1238]"] ;
253 -> 261 ;
262 [label="entropy = 0.0\nsamples = 804\nvalue = [804, 0]"] ;
261 -> 262 ;
263 [label="X[0] <= -84.25\nentropy = 0.879\nsamples = 4147\nvalue = [2909, 1238]"] ;
261 -> 263 ;
264 [label="X[1] <= 2018.5\nentropy = 0.914\nsamples = 2227\nvalue = [1495, 732]"] ;
263 -> 264 ;
265 [label="entropy = 0.921\nsamples = 1074\nvalue = [713, 361]"] ;
264 -> 265 ;
266 [label="entropy = 0.906\nsamples = 1153\nvalue = [782, 371]"] ;
264 -> 266 ;
267 [label="X[1] <= 2018.5\nentropy = 0.832\nsamples = 1920\nvalue = [1414, 506]"] ;
263 -> 267 ;
268 [label="entropy = 0.871\nsamples = 914\nvalue = [647, 267]"] ;
267 -> 268 ;
269 [label="entropy = 0.791\nsamples = 1006\nvalue = [767, 239]"] ;
267 -> 269 ;
270 [label="X[1] <= 2016.5\nentropy = 0.704\nsamples = 7333\nvalue = [5931, 1402]"] ;
252 -> 270 ;
271 [label="X[0] <= -84.05\nentropy = 0.803\nsamples = 3217\nvalue = [2429, 788]"] ;
270 -> 271 ;
272 [label="X[1] <= 2015.5\nentropy = 0.853\nsamples = 1698\nvalue = [1226, 472]"] ;
271 -> 272 ;
273 [label="entropy = 0.93\nsamples = 530\nvalue = [347, 183]"] ;
272 -> 273 ;
274 [label="entropy = 0.807\nsamples = 1168\nvalue = [879, 289]"] ;
272 -> 274 ;
275 [label="X[1] <= 2015.5\nentropy = 0.738\nsamples = 1519\nvalue = [1203, 316]"] ;
271 -> 275 ;
276 [label="entropy = 0.801\nsamples = 505\nvalue = [382, 123]"] ;
275 -> 276 ;
277 [label="entropy = 0.702\nsamples = 1014\nvalue = [821, 193]"] ;
275 -> 277 ;
278 [label="X[1] <= 2017.5\nentropy = 0.608\nsamples = 4116\nvalue = [3502, 614]"] ;
270 -> 278 ;
279 [label="entropy = 0.0\nsamples = 713\nvalue = [713, 0]"] ;
278 -> 279 ;
280 [label="X[0] <= -84.05\nentropy = 0.681\nsamples = 3403\nvalue = [2789, 614]"] ;
278 -> 280 ;
281 [label="X[1] <= 2018.5\nentropy = 0.736\nsamples = 1809\nvalue = [1434, 375]"] ;
280 -> 281 ;
282 [label="entropy = 0.756\nsamples = 804\nvalue = [629, 175]"] ;
281 -> 282 ;
283 [label="entropy = 0.72\nsamples = 1005\nvalue = [805, 200]"] ;
281 -> 283 ;
284 [label="X[1] <= 2018.5\nentropy = 0.61\nsamples = 1594\nvalue = [1355, 239]"] ;
280 -> 284 ;
285 [label="entropy = 0.609\nsamples = 728\nvalue = [619, 109]"] ;
284 -> 285 ;
286 [label="entropy = 0.61\nsamples = 866\nvalue = [736, 130]"] ;
284 -> 286 ;
287 [label="X[1] <= 2020.5\nentropy = 0.6\nsamples = 19272\nvalue = [2814, 16458]"] ;
119 -> 287 ;
288 [label="X[0] <= -84.25\nentropy = 0.73\nsamples = 13781\nvalue = [2814, 10967]"] ;
287 -> 288 ;
289 [label="X[0] <= -85.75\nentropy = 0.699\nsamples = 12832\nvalue = [2426, 10406]"] ;
288 -> 289 ;
290 [label="X[0] <= -85.85\nentropy = 0.951\nsamples = 739\nvalue = [274, 465]"] ;
289 -> 290 ;
291 [label="entropy = 0.976\nsamples = 328\nvalue = [134, 194]"] ;
290 -> 291 ;
292 [label="entropy = 0.925\nsamples = 411\nvalue = [140, 271]"] ;
290 -> 292 ;
293 [label="X[0] <= -84.35\nentropy = 0.676\nsamples = 12093\nvalue = [2152, 9941]"] ;
289 -> 293 ;
294 [label="X[0] <= -85.45\nentropy = 0.666\nsamples = 11609\nvalue = [2018, 9591]"] ;
293 -> 294 ;
295 [label="X[0] <= -85.55\nentropy = 0.77\nsamples = 1707\nvalue = [385, 1322]"] ;
294 -> 295 ;
296 [label="X[0] <= -85.65\nentropy = 0.801\nsamples = 1015\nvalue = [247, 768]"] ;
295 -> 296 ;
297 [label="entropy = 0.814\nsamples = 469\nvalue = [118, 351]"] ;
296 -> 297 ;
298 [label="entropy = 0.789\nsamples = 546\nvalue = [129, 417]"] ;
296 -> 298 ;
299 [label="entropy = 0.721\nsamples = 692\nvalue = [138, 554]"] ;
295 -> 299 ;
300 [label="X[0] <= -84.55\nentropy = 0.646\nsamples = 9902\nvalue = [1633, 8269]"] ;
294 -> 300 ;
301 [label="X[0] <= -84.75\nentropy = 0.632\nsamples = 8638\nvalue = [1373, 7265]"] ;
300 -> 301 ;
302 [label="X[0] <= -85.25\nentropy = 0.623\nsamples = 6969\nvalue = [1082, 5887]"] ;
301 -> 302 ;
303 [label="X[0] <= -85.35\nentropy = 0.649\nsamples = 1698\nvalue = [282, 1416]"] ;
302 -> 303 ;
304 [label="entropy = 0.648\nsamples = 773\nvalue = [128, 645]"] ;
303 -> 304 ;
305 [label="entropy = 0.65\nsamples = 925\nvalue = [154, 771]"] ;
303 -> 305 ;
306 [label="X[0] <= -85.05\nentropy = 0.614\nsamples = 5271\nvalue = [800, 4471]"] ;
302 -> 306 ;
307 [label="X[0] <= -85.15\nentropy = 0.619\nsamples = 2143\nvalue = [329, 1814]"] ;
306 -> 307 ;
308 [label="entropy = 0.614\nsamples = 1035\nvalue = [157, 878]"] ;
307 -> 308 ;
309 [label="entropy = 0.623\nsamples = 1108\nvalue = [172, 936]"] ;
307 -> 309 ;
310 [label="X[0] <= -84.85\nentropy = 0.611\nsamples = 3128\nvalue = [471, 2657]"] ;
306 -> 310 ;
311 [label="X[0] <= -84.95\nentropy = 0.609\nsamples = 2127\nvalue = [318, 1809]"] ;
310 -> 311 ;
312 [label="entropy = 0.613\nsamples = 1037\nvalue = [157, 880]"] ;
311 -> 312 ;
313 [label="entropy = 0.604\nsamples = 1090\nvalue = [161, 929]"] ;
311 -> 313 ;
314 [label="entropy = 0.617\nsamples = 1001\nvalue = [153, 848]"] ;
310 -> 314 ;
315 [label="X[0] <= -84.65\nentropy = 0.668\nsamples = 1669\nvalue = [291, 1378]"] ;
301 -> 315 ;
316 [label="entropy = 0.662\nsamples = 856\nvalue = [147, 709]"] ;
315 -> 316 ;
317 [label="entropy = 0.674\nsamples = 813\nvalue = [144, 669]"] ;
315 -> 317 ;
318 [label="X[0] <= -84.45\nentropy = 0.733\nsamples = 1264\nvalue = [260, 1004]"] ;
300 -> 318 ;
319 [label="entropy = 0.739\nsamples = 705\nvalue = [147, 558]"] ;
318 -> 319 ;
320 [label="entropy = 0.726\nsamples = 559\nvalue = [113, 446]"] ;
318 -> 320 ;
321 [label="entropy = 0.851\nsamples = 484\nvalue = [134, 350]"] ;
293 -> 321 ;
322 [label="X[0] <= -84.15\nentropy = 0.976\nsamples = 949\nvalue = [388, 561]"] ;
288 -> 322 ;
323 [label="entropy = 0.944\nsamples = 384\nvalue = [139, 245]"] ;
322 -> 323 ;
324 [label="X[0] <= -84.05\nentropy = 0.99\nsamples = 565\nvalue = [249, 316]"] ;
322 -> 324 ;
325 [label="entropy = 0.988\nsamples = 326\nvalue = [142, 184]"] ;
324 -> 325 ;
326 [label="entropy = 0.992\nsamples = 239\nvalue = [107, 132]"] ;
324 -> 326 ;
327 [label="entropy = 0.0\nsamples = 5491\nvalue = [0, 5491]"] ;
287 -> 327 ;
328 [label="X[0] <= -83.55\nentropy = 0.207\nsamples = 36962\nvalue = [35758, 1204]"] ;
2 -> 328 ;
329 [label="X[1] <= 2019.5\nentropy = 0.439\nsamples = 11833\nvalue = [10758, 1075]"] ;
328 -> 329 ;
330 [label="X[0] <= -83.75\nentropy = 0.368\nsamples = 11097\nvalue = [10314, 783]"] ;
329 -> 330 ;
331 [label="X[1] <= 2015.5\nentropy = 0.456\nsamples = 5977\nvalue = [5404, 573]"] ;
330 -> 331 ;
332 [label="X[0] <= -83.85\nentropy = 0.678\nsamples = 760\nvalue = [624, 136]"] ;
331 -> 332 ;
333 [label="entropy = 0.713\nsamples = 399\nvalue = [321, 78]"] ;
332 -> 333 ;
334 [label="entropy = 0.636\nsamples = 361\nvalue = [303, 58]"] ;
332 -> 334 ;
335 [label="X[0] <= -83.85\nentropy = 0.415\nsamples = 5217\nvalue = [4780, 437]"] ;
331 -> 335 ;
336 [label="X[1] <= 2016.5\nentropy = 0.458\nsamples = 2702\nvalue = [2441, 261]"] ;
335 -> 336 ;
337 [label="entropy = 0.522\nsamples = 894\nvalue = [789, 105]"] ;
336 -> 337 ;
338 [label="X[1] <= 2017.5\nentropy = 0.424\nsamples = 1808\nvalue = [1652, 156]"] ;
336 -> 338 ;
339 [label="entropy = 0.0\nsamples = 339\nvalue = [339, 0]"] ;
338 -> 339 ;
340 [label="X[1] <= 2018.5\nentropy = 0.488\nsamples = 1469\nvalue = [1313, 156]"] ;
338 -> 340 ;
341 [label="entropy = 0.564\nsamples = 680\nvalue = [590, 90]"] ;
340 -> 341 ;
342 [label="entropy = 0.415\nsamples = 789\nvalue = [723, 66]"] ;
340 -> 342 ;
343 [label="X[1] <= 2017.5\nentropy = 0.366\nsamples = 2515\nvalue = [2339, 176]"] ;
335 -> 343 ;
344 [label="X[1] <= 2016.5\nentropy = 0.326\nsamples = 1176\nvalue = [1106, 70]"] ;
343 -> 344 ;
345 [label="entropy = 0.414\nsamples = 839\nvalue = [769, 70]"] ;
344 -> 345 ;
346 [label="entropy = 0.0\nsamples = 337\nvalue = [337, 0]"] ;
344 -> 346 ;
347 [label="X[1] <= 2018.5\nentropy = 0.399\nsamples = 1339\nvalue = [1233, 106]"] ;
343 -> 347 ;
348 [label="entropy = 0.411\nsamples = 581\nvalue = [533, 48]"] ;
347 -> 348 ;
349 [label="entropy = 0.39\nsamples = 758\nvalue = [700, 58]"] ;
347 -> 349 ;
350 [label="X[1] <= 2016.5\nentropy = 0.247\nsamples = 5120\nvalue = [4910, 210]"] ;
330 -> 350 ;
351 [label="X[1] <= 2015.5\nentropy = 0.314\nsamples = 2190\nvalue = [2066, 124]"] ;
350 -> 351 ;
352 [label="X[0] <= -83.65\nentropy = 0.367\nsamples = 682\nvalue = [634, 48]"] ;
351 -> 352 ;
353 [label="entropy = 0.399\nsamples = 354\nvalue = [326, 28]"] ;
352 -> 353 ;
354 [label="entropy = 0.331\nsamples = 328\nvalue = [308, 20]"] ;
352 -> 354 ;
355 [label="X[0] <= -83.65\nentropy = 0.288\nsamples = 1508\nvalue = [1432, 76]"] ;
351 -> 355 ;
356 [label="entropy = 0.311\nsamples = 769\nvalue = [726, 43]"] ;
355 -> 356 ;
357 [label="entropy = 0.263\nsamples = 739\nvalue = [706, 33]"] ;
355 -> 357 ;
358 [label="X[1] <= 2017.5\nentropy = 0.191\nsamples = 2930\nvalue = [2844, 86]"] ;
350 -> 358 ;
359 [label="entropy = 0.0\nsamples = 633\nvalue = [633, 0]"] ;
358 -> 359 ;
360 [label="X[0] <= -83.65\nentropy = 0.23\nsamples = 2297\nvalue = [2211, 86]"] ;
358 -> 360 ;
361 [label="X[1] <= 2018.5\nentropy = 0.263\nsamples = 1188\nvalue = [1135, 53]"] ;
360 -> 361 ;
362 [label="entropy = 0.262\nsamples = 542\nvalue = [518, 24]"] ;
361 -> 362 ;
363 [label="entropy = 0.264\nsamples = 646\nvalue = [617, 29]"] ;
361 -> 363 ;
364 [label="X[1] <= 2018.5\nentropy = 0.193\nsamples = 1109\nvalue = [1076, 33]"] ;
360 -> 364 ;
365 [label="entropy = 0.217\nsamples = 521\nvalue = [503, 18]"] ;
364 -> 365 ;
366 [label="entropy = 0.171\nsamples = 588\nvalue = [573, 15]"] ;
364 -> 366 ;
367 [label="X[1] <= 2020.5\nentropy = 0.969\nsamples = 736\nvalue = [444, 292]"] ;
329 -> 367 ;
368 [label="X[0] <= -83.85\nentropy = 0.88\nsamples = 633\nvalue = [444, 189]"] ;
367 -> 368 ;
369 [label="entropy = 0.963\nsamples = 214\nvalue = [131, 83]"] ;
368 -> 369 ;
370 [label="X[0] <= -83.65\nentropy = 0.816\nsamples = 419\nvalue = [313, 106]"] ;
368 -> 370 ;
371 [label="X[0] <= -83.75\nentropy = 0.848\nsamples = 313\nvalue = [227, 86]"] ;
370 -> 371 ;
372 [label="entropy = 0.869\nsamples = 186\nvalue = [132, 54]"] ;
371 -> 372 ;
373 [label="entropy = 0.814\nsamples = 127\nvalue = [95, 32]"] ;
371 -> 373 ;
374 [label="entropy = 0.699\nsamples = 106\nvalue = [86, 20]"] ;
370 -> 374 ;
375 [label="entropy = 0.0\nsamples = 103\nvalue = [0, 103]"] ;
367 -> 375 ;
376 [label="X[0] <= -83.15\nentropy = 0.046\nsamples = 25129\nvalue = [25000, 129]"] ;
328 -> 376 ;
377 [label="X[1] <= 2020.5\nentropy = 0.109\nsamples = 8454\nvalue = [8332, 122]"] ;
376 -> 377 ;
378 [label="X[0] <= -83.35\nentropy = 0.103\nsamples = 8446\nvalue = [8332, 114]"] ;
377 -> 378 ;
379 [label="X[1] <= 2019.5\nentropy = 0.144\nsamples = 4607\nvalue = [4513, 94]"] ;
378 -> 379 ;
380 [label="X[1] <= 2016.5\nentropy = 0.122\nsamples = 4409\nvalue = [4336, 73]"] ;
379 -> 380 ;
381 [label="X[0] <= -83.45\nentropy = 0.149\nsamples = 1827\nvalue = [1788, 39]"] ;
380 -> 381 ;
382 [label="X[1] <= 2015.5\nentropy = 0.189\nsamples = 933\nvalue = [906, 27]"] ;
381 -> 382 ;
383 [label="entropy = 0.227\nsamples = 300\nvalue = [289, 11]"] ;
382 -> 383 ;
384 [label="entropy = 0.17\nsamples = 633\nvalue = [617, 16]"] ;
382 -> 384 ;
385 [label="X[1] <= 2015.5\nentropy = 0.103\nsamples = 894\nvalue = [882, 12]"] ;
381 -> 385 ;
386 [label="entropy = 0.11\nsamples = 275\nvalue = [271, 4]"] ;
385 -> 386 ;
387 [label="entropy = 0.1\nsamples = 619\nvalue = [611, 8]"] ;
385 -> 387 ;
388 [label="X[1] <= 2017.5\nentropy = 0.101\nsamples = 2582\nvalue = [2548, 34]"] ;
380 -> 388 ;
389 [label="entropy = 0.0\nsamples = 521\nvalue = [521, 0]"] ;
388 -> 389 ;
390 [label="X[1] <= 2018.5\nentropy = 0.121\nsamples = 2061\nvalue = [2027, 34]"] ;
388 -> 390 ;
391 [label="X[0] <= -83.45\nentropy = 0.074\nsamples = 888\nvalue = [880, 8]"] ;
390 -> 391 ;
392 [label="entropy = 0.11\nsamples = 478\nvalue = [471, 7]"] ;
391 -> 392 ;
393 [label="entropy = 0.025\nsamples = 410\nvalue = [409, 1]"] ;
391 -> 393 ;
394 [label="X[0] <= -83.45\nentropy = 0.153\nsamples = 1173\nvalue = [1147, 26]"] ;
390 -> 394 ;
395 [label="entropy = 0.13\nsamples = 610\nvalue = [599, 11]"] ;
394 -> 395 ;
396 [label="entropy = 0.177\nsamples = 563\nvalue = [548, 15]"] ;
394 -> 396 ;
397 [label="X[0] <= -83.45\nentropy = 0.488\nsamples = 198\nvalue = [177, 21]"] ;
379 -> 397 ;
398 [label="entropy = 0.642\nsamples = 92\nvalue = [77, 15]"] ;
397 -> 398 ;
399 [label="entropy = 0.314\nsamples = 106\nvalue = [100, 6]"] ;
397 -> 399 ;
400 [label="X[1] <= 2018.5\nentropy = 0.047\nsamples = 3839\nvalue = [3819, 20]"] ;
378 -> 400 ;
401 [label="X[1] <= 2017.5\nentropy = 0.054\nsamples = 2783\nvalue = [2766, 17]"] ;
400 -> 401 ;
402 [label="X[1] <= 2016.5\nentropy = 0.046\nsamples = 1992\nvalue = [1982, 10]"] ;
401 -> 402 ;
403 [label="X[0] <= -83.25\nentropy = 0.057\nsamples = 1533\nvalue = [1523, 10]"] ;
402 -> 403 ;
404 [label="X[1] <= 2015.5\nentropy = 0.074\nsamples = 777\nvalue = [770, 7]"] ;
403 -> 404 ;
405 [label="entropy = 0.105\nsamples = 217\nvalue = [214, 3]"] ;
404 -> 405 ;
406 [label="entropy = 0.061\nsamples = 560\nvalue = [556, 4]"] ;
404 -> 406 ;
407 [label="X[1] <= 2015.5\nentropy = 0.037\nsamples = 756\nvalue = [753, 3]"] ;
403 -> 407 ;
408 [label="entropy = 0.043\nsamples = 215\nvalue = [214, 1]"] ;
407 -> 408 ;
409 [label="entropy = 0.035\nsamples = 541\nvalue = [539, 2]"] ;
407 -> 409 ;
410 [label="entropy = 0.0\nsamples = 459\nvalue = [459, 0]"] ;
402 -> 410 ;
411 [label="X[0] <= -83.25\nentropy = 0.073\nsamples = 791\nvalue = [784, 7]"] ;
401 -> 411 ;
412 [label="entropy = 0.064\nsamples = 401\nvalue = [398, 3]"] ;
411 -> 412 ;
413 [label="entropy = 0.082\nsamples = 390\nvalue = [386, 4]"] ;
411 -> 413 ;
414 [label="X[1] <= 2019.5\nentropy = 0.028\nsamples = 1056\nvalue = [1053, 3]"] ;
400 -> 414 ;
415 [label="X[0] <= -83.25\nentropy = 0.032\nsamples = 897\nvalue = [894, 3]"] ;
414 -> 415 ;
416 [label="entropy = 0.039\nsamples = 483\nvalue = [481, 2]"] ;
415 -> 416 ;
417 [label="entropy = 0.024\nsamples = 414\nvalue = [413, 1]"] ;
415 -> 417 ;
418 [label="entropy = 0.0\nsamples = 159\nvalue = [159, 0]"] ;
414 -> 418 ;
419 [label="entropy = 0.0\nsamples = 8\nvalue = [0, 8]"] ;
377 -> 419 ;
420 [label="X[1] <= 2020.5\nentropy = 0.005\nsamples = 16675\nvalue = [16668, 7]"] ;
376 -> 420 ;
421 [label="X[0] <= -82.75\nentropy = 0.005\nsamples = 16674\nvalue = [16668, 6]"] ;
420 -> 421 ;
422 [label="X[1] <= 2015.5\nentropy = 0.012\nsamples = 5914\nvalue = [5908, 6]"] ;
421 -> 422 ;
423 [label="X[0] <= -83.05\nentropy = 0.05\nsamples = 707\nvalue = [703, 4]"] ;
422 -> 423 ;
424 [label="entropy = 0.12\nsamples = 184\nvalue = [181, 3]"] ;
423 -> 424 ;
425 [label="X[0] <= -82.85\nentropy = 0.02\nsamples = 523\nvalue = [522, 1]"] ;
423 -> 425 ;
426 [label="entropy = 0.0\nsamples = 360\nvalue = [360, 0]"] ;
425 -> 426 ;
427 [label="entropy = 0.054\nsamples = 163\nvalue = [162, 1]"] ;
425 -> 427 ;
428 [label="X[0] <= -82.95\nentropy = 0.005\nsamples = 5207\nvalue = [5205, 2]"] ;
422 -> 428 ;
429 [label="X[1] <= 2017.5\nentropy = 0.008\nsamples = 2801\nvalue = [2799, 2]"] ;
428 -> 429 ;
430 [label="entropy = 0.0\nsamples = 1291\nvalue = [1291, 0]"] ;
429 -> 430 ;
431 [label="X[1] <= 2018.5\nentropy = 0.015\nsamples = 1510\nvalue = [1508, 2]"] ;
429 -> 431 ;
432 [label="X[0] <= -83.05\nentropy = 0.031\nsamples = 619\nvalue = [617, 2]"] ;
431 -> 432 ;
433 [label="entropy = 0.029\nsamples = 341\nvalue = [340, 1]"] ;
432 -> 433 ;
434 [label="entropy = 0.034\nsamples = 278\nvalue = [277, 1]"] ;
432 -> 434 ;
435 [label="entropy = 0.0\nsamples = 891\nvalue = [891, 0]"] ;
431 -> 435 ;
436 [label="entropy = 0.0\nsamples = 2406\nvalue = [2406, 0]"] ;
428 -> 436 ;
437 [label="entropy = 0.0\nsamples = 10760\nvalue = [10760, 0]"] ;
421 -> 437 ;
438 [label="entropy = 0.0\nsamples = 1\nvalue = [0, 1]"] ;
420 -> 438 ;
}
